digraph Tree {
node [shape=box] ;
0 [label="X[2] <= 2.6\nentropy = 1.585\nsamples = 120\nvalue = [40, 40, 40]"] ;
1 [label="entropy = 0.0\nsamples = 40\nvalue = [40, 0, 0]"] ;
0 -> 1 [labeldistance=2.5, labelangle=45, headlabel="True"] ;
2 [label="X[3] <= 1.75\nentropy = 1.0\nsamples = 80\nvalue = [0, 40, 40]"] ;
0 -> 2 [labeldistance=2.5, labelangle=-45, headlabel="False"] ;
3 [label="X[2] <= 4.95\nentropy = 0.511\nsamples = 44\nvalue = [0, 39, 5]"] ;
2 -> 3 ;
4 [label="X[3] <= 1.65\nentropy = 0.176\nsamples = 38\nvalue = [0, 37, 1]"] ;
3 -> 4 ;
5 [label="entropy = 0.0\nsamples = 37\nvalue = [0, 37, 0]"] ;
4 -> 5 ;
6 [label="entropy = 0.0\nsamples = 1\nvalue = [0, 0, 1]"] ;
4 -> 6 ;
7 [label="X[3] <= 1.55\nentropy = 0.918\nsamples = 6\nvalue = [0, 2, 4]"] ;
3 -> 7 ;
8 [label="entropy = 0.0\nsamples = 3\nvalue = [0, 0, 3]"] ;
7 -> 8 ;
9 [label="X[0] <= 6.95\nentropy = 0.918\nsamples = 3\nvalue = [0, 2, 1]"] ;
7 -> 9 ;
10 [label="entropy = 0.0\nsamples = 2\nvalue = [0, 2, 0]"] ;
9 -> 10 ;
11 [label="entropy = 0.0\nsamples = 1\nvalue = [0, 0, 1]"] ;
9 -> 11 ;
12 [label="X[2] <= 4.85\nentropy = 0.183\nsamples = 36\nvalue = [0, 1, 35]"] ;
2 -> 12 ;
13 [label="X[1] <= 3.1\nentropy = 0.918\nsamples = 3\nvalue = [0, 1, 2]"] ;
12 -> 13 ;
14 [label="entropy = 0.0\nsamples = 2\nvalue = [0, 0, 2]"] ;
13 -> 14 ;
15 [label="entropy = 0.0\nsamples = 1\nvalue = [0, 1, 0]"] ;
13 -> 15 ;
16 [label="entropy = 0.0\nsamples = 33\nvalue = [0, 0, 33]"] ;
12 -> 16 ;
}